{
    "0": {
        "Pre-update": {
            "biases": [
                [
                    [
                        -0.3832816230583626
                    ]
                ],
                [
                    [
                        -0.4943338588233922
                    ],
                    [
                        0.02868808253390401
                    ],
                    [
                        0.04212852942271181
                    ],
                    [
                        -0.7558822374675694
                    ],
                    [
                        -0.907134221648872
                    ],
                    [
                        -1.455807322462819
                    ],
                    [
                        -0.3501436723659719
                    ],
                    [
                        -0.7397869800471361
                    ],
                    [
                        -0.03902233410114186
                    ],
                    [
                        -0.12456950490384514
                    ]
                ]
            ],
            "weights": [
                [
                    [
                        -0.8886530061934983,
                        1.414213435437682,
                        -2.324910808531126,
                        -1.2104018627302635,
                        -2.401798740275909,
                        2.746858504354925,
                        0.8996266260645216,
                        -1.3890721935835415,
                        -1.01709252345275,
                        0.7060291849757482,
                        0.7143698973364307,
                        0.5475411745925657,
                        0.46752724780812105,
                        -0.9495574801968844,
                        -0.7325991645207123,
                        -0.8869394568892026,
                        -0.01296928256437813,
                        0.7153824610824379,
                        -1.8170685381853495,
                        1.4113945791956577,
                        0.21879507762141,
                        0.8912452408527106,
                        0.12553315858225444,
                        -0.22195765572016932,
                        -0.8368361945257863,
                        1.3957018505973648,
                        -1.5591738464563096,
                        0.7155163308087877,
                        -0.055453499532616475,
                        -0.33135440049277964,
                        -0.7400078912269169,
                        -0.6402657955933782,
                        2.115495678886833,
                        -0.34224761075314986,
                        0.18750788275255229,
                        0.4173020348377962,
                        0.8798941578937165,
                        0.5670692689698826,
                        0.9527130524175764,
                        1.27245424866458,
                        -0.25207781472154234,
                        -0.2374430484221021,
                        0.8646246166664285,
                        -0.5384964451599038,
                        -0.13623348737294658,
                        -0.7860935039692939,
                        0.6278096919634489,
                        -0.9398938534956701,
                        0.5923985931814661,
                        2.3208468477012603,
                        -0.2990924023942954,
                        -1.6820676225779778,
                        0.7108181473294445,
                        -0.5251493242854318,
                        1.1001698075068806,
                        -1.2467976503143934,
                        1.33409428591885,
                        0.11099736541760696,
                        -0.21627097893222882,
                        -1.091650254875075,
                        -0.8778363005315004,
                        -0.206727663325745,
                        1.0399980419322308,
                        0.5086192994786836,
                        0.011146966643272985,
                        0.7959338076282798,
                        -1.1507322704388459,
                        2.1650449434457495,
                        0.6323197223374765,
                        -0.4702791112814993,
                        -1.7427057595178346,
                        -0.08506174076485438,
                        0.17514046689325613,
                        -0.5520960959925416,
                        -0.5213265747593185,
                        -0.914574296907315,
                        -0.3637395313641067,
                        -0.6516765385846532,
                        -0.30850818374434674,
                        1.2734417124304354,
                        0.920041465113995,
                        -0.6169718771664408,
                        -1.3377213702070139,
                        -0.5938718522666636,
                        0.8442664106051254,
                        -0.5417495469714787,
                        1.0420979251221811,
                        -0.4183816159570497,
                        0.2894624560279267,
                        0.6394525990842469,
                        0.4801633841531121,
                        -0.9189591269531896,
                        0.7245173336628153,
                        0.6604805737819803,
                        -0.07052750805354517,
                        1.1413499310790935,
                        0.22457029072801607,
                        -0.09046188806386243,
                        1.1414244831496005,
                        1.1775793971269595,
                        0.10774772006320325,
                        -0.44441251452117175,
                        -0.3103119455110631,
                        1.013786007542587,
                        0.07161764663375297,
                        -0.8069757780980317,
                        -0.11941872952727496,
                        -0.2896535101751337,
                        0.04472069613533292,
                        -0.301771436820808,
                        -0.49004227467959366,
                        -1.1472858696005133,
                        -0.9531477383519271,
                        -0.5694844990149552,
                        0.8656004874139563,
                        0.6235405572452601,
                        -1.252573398742157,
                        -0.5400394019470092,
                        -0.2942339348419619,
                        -0.9098396627424141,
                        0.7416834231372292,
                        0.024527130692995638,
                        -0.31080221280283665,
                        -0.4806841843963232,
                        1.3086284843381366,
                        1.6608728373277837,
                        0.413367000072329,
                        -1.4980010594510704,
                        -0.6955949691357485,
                        -1.1152250016127296,
                        -0.9760966232651382,
                        -1.9619581368312955,
                        0.12008092335349065,
                        -0.04587220956109607,
                        -0.46786943613366255,
                        -1.0940175666173313,
                        -0.4926287721358208,
                        1.4571173695903443,
                        0.4002010972089039,
                        1.86710026809947,
                        2.138867977288118,
                        0.006882427690854141,
                        -1.188529311813322,
                        -0.35427917250616836,
                        0.17940440669133276,
                        -0.6437633846468347,
                        0.08970096264855236,
                        0.4052850838650626,
                        0.47909896105451777,
                        0.6329051145291172,
                        1.5697714809798018,
                        -0.03396522415250002,
                        -0.42254475273806963,
                        -2.5346215806315047,
                        -0.43352639276797444,
                        1.009623411510642,
                        0.7598624390279701,
                        1.6634965052183501,
                        -1.9119397808859961,
                        1.5851457910929723,
                        0.5785543794360695,
                        0.5586567040525285,
                        0.023603887930394314,
                        -1.3283010625897451,
                        -0.44976790200166017,
                        0.36905804919467683,
                        0.9991298100674767,
                        -0.024729814441276872,
                        0.6093767398682063,
                        -1.5302650710743408,
                        -0.38928985322409865,
                        -1.5360998597581008,
                        -0.6754448644744946,
                        0.6592983741591041,
                        0.2566811097679815,
                        -0.12640568118842593,
                        -1.8104726776774782,
                        0.42260062933612547,
                        -0.23479482220968956,
                        -0.2687758847162154,
                        0.20465819304815996,
                        -1.5227073619491378,
                        0.1196895566284205,
                        0.11498001543929216,
                        -0.06576768859240399,
                        -0.040386661829437204,
                        1.5058692705892363,
                        -0.058659806503752965,
                        0.7300715076139407,
                        -0.2731255040181059,
                        0.8430916410131706,
                        -1.2182550589752956,
                        0.8301355660138995,
                        0.053685842558921136,
                        -1.01708158620407,
                        -1.3338470243547564,
                        0.4534268489642021,
                        -2.0791195912502283,
                        -0.6611341405424884,
                        0.24848342099438228,
                        0.2359007039862034,
                        2.277022102985754,
                        -0.09623765449993674,
                        1.2392825831475223,
                        -0.5472342108926492,
                        -1.554318645337755,
                        1.0092298524633956,
                        1.2447031982545933,
                        -0.9599372946374122,
                        0.5582530157810247,
                        1.1647551670742884,
                        1.5584418983297068,
                        -1.3455553700980505,
                        -0.43799855433610363,
                        1.6299409758715753,
                        1.7171711335818223,
                        -1.2764509530102788,
                        -1.3971299311712664,
                        0.31769372665448947,
                        -0.2160205868074891,
                        -0.7656990648521462,
                        -2.017781091314646,
                        -0.07117945770097113,
                        -1.3204290909900305,
                        -0.6265613628107881,
                        0.5827569651451966,
                        0.09362998248237614,
                        1.251931631722755,
                        -0.08379538704469755,
                        0.34688702672142546,
                        0.9515516371632163,
                        -0.1703395917513218,
                        0.1265015150424043,
                        1.5845839033984184,
                        -0.21083557276366188,
                        -0.13574081655088788,
                        -0.9448181235354597,
                        1.1371737523631538,
                        -0.638088725239741,
                        -1.5049674735633387,
                        -0.30658559867500357,
                        -0.2486317737209344,
                        -0.7168949084725593,
                        0.10753388825325982,
                        -1.1964922179727155,
                        -2.2471670988644488,
                        0.5348887977420318,
                        -0.8481941951406206,
                        -1.3433330810345245,
                        -0.1709870836365347,
                        -1.9056682700548278,
                        1.465463968121705,
                        -0.602454956936297,
                        -0.5046006702907017,
                        -0.5271365217172433,
                        -1.176450459529187,
                        -0.5070789157182644,
                        0.10452654531224803,
                        0.7442524455982744,
                        -0.10329220247024914,
                        0.2586965550976569,
                        -0.6899614487390681,
                        0.9706862713094797,
                        -1.0433501130979181,
                        0.1719815642905535,
                        -0.21858993983230676,
                        2.107219048864198,
                        -0.25123595374360214,
                        -0.05925633404413979,
                        1.2686582783824387,
                        -0.072025711404896,
                        -0.05710940078712581,
                        -0.37590949867248596,
                        0.6269636992430697,
                        -0.25769223527201274,
                        0.06334895137482686,
                        -0.36331821980242635,
                        -0.1908359070236178,
                        0.5525828615623991,
                        1.9504165272433511,
                        0.13679446354772343,
                        -1.7779656414335034,
                        0.595104560416189,
                        1.6447127681800546,
                        -0.27570479656207597,
                        -2.1064380521835915,
                        -0.3752281002947223,
                        1.7957841071493241,
                        0.5534892436402777,
                        0.41597201277436785,
                        -0.11579900269023534,
                        2.1180629811980696,
                        0.7269269104454967,
                        -1.0584202068492194,
                        1.482633806429316,
                        -1.533232504551339,
                        0.7559794831341359,
                        -1.4776280814647413,
                        -0.21346964318804487,
                        -0.973903593364326,
                        0.31023729971876796,
                        -0.19260009600430422,
                        -0.4824653833113744,
                        0.8091061311894661,
                        -0.4373692518890116,
                        0.836941280375467,
                        0.37334513424446353,
                        1.0749291943378412,
                        0.33657935122418414,
                        0.955393328320236,
                        -0.10628213687058753,
                        -2.6227584228209158,
                        -0.02871969344374236,
                        0.006180033577438636,
                        0.3598079399033071,
                        -1.256317328378582,
                        -1.081943137259254,
                        -0.23521674752153504,
                        -1.1197453369833381,
                        -0.10471132166724569,
                        0.8612246824952741,
                        -0.4927733616345997,
                        0.3979985034643329,
                        -0.6120208959227177,
                        0.10230951515069193,
                        1.552683512293908,
                        -0.328212853669217,
                        1.1889937729689422,
                        -0.7318174107921367,
                        0.19716986197702485,
                        0.6508595815154739,
                        0.9935077312403714,
                        -0.8833798558324606,
                        0.494691976771459,
                        0.21238581983104032,
                        -1.1113217236362174,
                        0.5706395461052278,
                        1.1501887844177774,
                        1.167780885038507,
                        -0.18902571178224983,
                        0.15591732439151362,
                        -2.6523065857355603,
                        -0.7255343289505114,
                        -0.7473396698793487,
                        -1.502810922308189,
                        -0.26525992828029477,
                        -1.1176642909482628,
                        0.2231718824119344,
                        -0.018363081731037022,
                        -0.5118581419710176,
                        -1.9563224018592194,
                        -0.9874482346369761,
                        0.7550081812506246,
                        -0.8738218745967056,
                        -2.22797470502487,
                        1.0171101934144307,
                        0.3631482957091417,
                        -0.04239305416635253,
                        0.20738972021455354,
                        -0.7893396601832056,
                        -1.527860938977888,
                        -0.49800774170752854,
                        0.7052587781513344,
                        -1.7201713396686757,
                        -1.011090148854101,
                        1.1380354610384977,
                        -0.4265710544980063,
                        -0.32151016050160613,
                        -0.632080443902888,
                        -0.7437376306233772,
                        -0.1655756290017423,
                        -1.228922837309572,
                        1.054479462690276,
                        -0.513652751297553,
                        -0.4730661493202292,
                        -1.465540337554436,
                        1.116682511756005,
                        0.512868668495394,
                        -0.01640597011755752,
                        -0.0968695258768329,
                        0.2144009062724979,
                        -2.6331960538490353,
                        -0.23197773066483787,
                        -0.4068062096304297,
                        1.1792420855304675,
                        -1.61762009543897,
                        -0.581114213719095,
                        0.21170255440009902,
                        0.406041667686194,
                        -0.5233303259955464,
                        -0.6882691110328147,
                        0.02507228147050552,
                        -0.7070809097766343,
                        0.5250075953192781,
                        1.186719804477442,
                        0.4413537317310842,
                        0.22606827781663433,
                        -0.8810893274804781,
                        -0.06975284443350653,
                        -0.6188283317862985,
                        -1.2059904276701792,
                        0.5027970058701603,
                        0.3452292072816933,
                        -2.108410744616296,
                        0.40482599842079703,
                        -0.515585700370774,
                        -0.42887711075617213,
                        -0.9463763630289846,
                        -0.1562226877574422,
                        1.0079092103499778,
                        1.0368767269318653,
                        -0.4012246810502667,
                        -0.4091658503163188,
                        -1.7627275757543612,
                        -2.6581148643715826,
                        0.22213424011098656,
                        0.029593036049175066,
                        1.0868519761400828,
                        -0.4391066808902727,
                        0.45133868757968776,
                        0.16651985958368684,
                        -0.22647880398142664,
                        2.154536311829811,
                        0.6934351922361431,
                        0.5419682471425363,
                        0.7661106146303664,
                        0.11793415356343785,
                        1.777290390207863,
                        1.4413362211182787,
                        -0.3485113661114662,
                        0.20460871009569973,
                        1.0532469150414638,
                        1.853087102916438,
                        -0.35274691678100356,
                        0.5413381648094,
                        0.13975128682152793,
                        -1.235488739353772,
                        1.9388975935088315,
                        -2.3555176410333227,
                        0.4233724922637296,
                        -0.26761086524745464,
                        -1.7374079888323897,
                        1.0501416526365268,
                        0.8508008392102019,
                        0.1735969783266284,
                        0.687725524695691,
                        -0.9318054708318487,
                        -1.5233326062248391,
                        -0.7028489837361099,
                        0.7371944518103488,
                        -0.9312818304632324,
                        1.0449379019943048,
                        -1.02442699090541,
                        -0.233352028266665,
                        -0.09299979689893709,
                        -1.2767044177832725,
                        -0.9223973342769591,
                        -0.9269572931160321,
                        0.8540372131041424,
                        1.0696762960492086,
                        -1.2186192842225005,
                        1.1229024292355734,
                        -0.0998814170622276,
                        1.1377842838302126,
                        -0.3527360991200249,
                        0.386271485193796,
                        0.18063436984484604,
                        0.36837052826701944,
                        -2.4276694052126215,
                        0.1043816935673507,
                        -0.24366484693563795,
                        -1.9081492756950713,
                        -1.8778016252783993,
                        -0.3183618460370305,
                        -1.3873807637670028,
                        -1.3902705360237753,
                        1.0189128389349476,
                        -0.1081063761204447,
                        -0.17278312440881624,
                        1.4414861359479016,
                        0.013919854270642826,
                        -1.1251941052868513,
                        0.18031628600850844,
                        0.09681336147572343,
                        0.597746117029697,
                        -1.4356542754163861,
                        -1.0331979272137979,
                        0.6249022276587809,
                        0.5096793414467193,
                        0.10138928212024673,
                        1.8274626151556237,
                        0.044537626658602954,
                        -2.419288971862723,
                        1.6571593716143114,
                        -0.4445747240094315,
                        0.9861696470947776,
                        2.103410795851194,
                        -0.34180259662337936,
                        0.24163721763674206,
                        1.1763562812684352,
                        -0.2393988203604723,
                        0.49888143995819634,
                        0.919464736393467,
                        -0.05540310956445567,
                        -1.2917337448635027,
                        1.1370250116964922,
                        1.071485872033068,
                        -0.966859681682587,
                        -0.35536369716825184,
                        1.1107343382980657,
                        -0.6250837244568416,
                        0.3890166700811391,
                        -0.9026457894075798,
                        0.14605486598837975,
                        0.6952720605110381,
                        0.7784754788252043,
                        0.3392400489974875,
                        -0.25375209032963303,
                        0.23651934543715955,
                        -0.831720694522802,
                        -0.29801170586068143,
                        -0.794797933461994,
                        0.4898306052582172,
                        0.4921544798561962,
                        -0.3621145884278948,
                        0.43149078325728085,
                        -0.5772305678349714,
                        0.022168143987193203,
                        -0.534463136025342,
                        -0.06763296580149392,
                        -1.5395531897343047,
                        0.24042842239868562,
                        -0.9857030437573103,
                        1.445904947186514,
                        1.1914379954337886,
                        -0.06064039158531931,
                        -0.8450567858538716,
                        -0.5693259571373059,
                        1.7259020006764287,
                        0.23177759200129638,
                        -0.5545261176639844,
                        -2.037106904289364,
                        -0.08320425281334116,
                        -0.13948791857029286,
                        1.407772491644599,
                        -0.7664897214645456,
                        1.357497329921672,
                        0.08532533385367012,
                        -0.9205367405979026,
                        0.9019053634382314,
                        -0.02453419354541403,
                        2.074983008642811,
                        0.8819154693227002,
                        -0.0890902148539478,
                        0.8292828195138569,
                        -0.28506476762702615,
                        0.22104492838508483,
                        2.577031891806788,
                        -1.1119571175894132,
                        -0.37135374310594627,
                        -1.3751181031586839,
                        0.25539625073271505,
                        1.2782372173202152,
                        0.2879393407097473,
                        -0.07231686369503043,
                        0.22534695762275514,
                        -0.23721604643668365,
                        0.21116757703335334,
                        -1.2278087178158867,
                        2.085800089279825,
                        -1.634950828324572,
                        0.34114040882719276,
                        0.4958061276527597,
                        -0.4891035984320168,
                        0.29705759922159325,
                        -0.35030919673158134,
                        1.3932878367809696,
                        -1.2713817836528891,
                        -0.48275238559122935,
                        -0.19864586512650503,
                        -0.20011647419330958,
                        0.14458420292144655,
                        1.3193816102452187,
                        1.1079692473261586,
                        0.46310610135376695,
                        -1.4662448149910794,
                        -0.9993756234893384,
                        -0.043456875980622776,
                        -0.9855913062905398,
                        -0.9080050890185295,
                        1.5156439193272675,
                        -0.009786179607555746,
                        0.4286235338741623,
                        0.050508755531942326,
                        0.3898316470267796,
                        -0.4860702395908409,
                        1.6953094116464926,
                        0.8663490780336108,
                        -1.2364802155706214,
                        -0.24675856449406425,
                        -0.24065904766091162,
                        -0.33463569745955396,
                        0.46056316034921946,
                        -0.3285439009998553,
                        -0.07776924758571653,
                        0.43744623640475605,
                        0.14309568682115684,
                        -0.8130725161730932,
                        -0.19665420359433783,
                        0.3978037612883184,
                        -0.12169078493955962,
                        -0.19104309336446645,
                        -0.06682584200822216,
                        0.05426325618958544,
                        -0.2609932652828113,
                        -0.40797939669234856,
                        -0.149422232465229,
                        1.3826268950367824,
                        -0.3282788515303035,
                        -0.655959961994632,
                        1.3941527502669382,
                        1.1356708352395601,
                        0.08454398725686638,
                        0.1897826307732454,
                        -1.9118142274677026,
                        0.7236719576231543,
                        1.1973210040336184,
                        -1.34140838347879,
                        0.4123773472938438,
                        0.5804655610201287,
                        0.40824588235078346,
                        0.29138652603530385,
                        0.24100298240505597,
                        0.597407154719973,
                        -0.5898939435993686,
                        0.05718104094944732,
                        1.8895935674315898,
                        -0.8886260546958145,
                        1.4981213072628825,
                        2.061156037606825,
                        1.6545093230441814,
                        1.249655595222718,
                        3.090641257740244,
                        0.07242090025588824,
                        -0.4708432501566194,
                        -0.2375112743349726,
                        -0.676289901359152,
                        -0.5149830243251391,
                        0.42527141675268987,
                        -0.8127139461654056,
                        -0.3286504722164933,
                        -0.25399079988839496,
                        0.8534156683821608,
                        0.4305467389824783,
                        0.48776833770263733,
                        -1.2362225127859245,
                        0.558379097970909,
                        0.3903269675868735,
                        -0.24281945736215726,
                        0.9437086052376267,
                        1.2853202197849118,
                        0.21144170822274921,
                        1.2650283246331702,
                        0.5522034390683099,
                        0.5826855106046336,
                        -0.7010626648733642,
                        -0.43638071711561227,
                        1.5443507612006648,
                        -0.09123517478140145,
                        -0.6043083973222534,
                        1.0467602298189946,
                        0.49640530477745415,
                        -1.3173444755666188,
                        -0.3958672431821802,
                        0.027869447371025122,
                        0.5744564524696907,
                        -0.5792368644299105,
                        0.163769925686348,
                        -0.8372003803364674,
                        0.6974999639125269,
                        1.3511618349060548,
                        -0.34987055848098964,
                        2.011732724329911,
                        0.7564690356387727,
                        -0.7182122079578479,
                        1.340455583048096,
                        0.9095715886956912,
                        0.16797967169209685,
                        -0.2813657771676118,
                        1.049124443473733,
                        2.138870417831099,
                        0.4541746087353734,
                        -0.807777870913098,
                        -0.34538504425535616,
                        0.3588641923855036,
                        0.1796604898932022,
                        1.0264937359077149,
                        -0.8811022152671495,
                        1.9535781199100404,
                        0.16013785593066143,
                        0.8167136610537185,
                        -0.4542878415325923,
                        1.4099369198394949,
                        0.6354392677469313,
                        -0.45521781589972315,
                        0.01578795765400908,
                        0.010465154031991079,
                        1.6614294341549913,
                        1.1562713393120772,
                        -0.24328365054960238,
                        0.6771129966857169,
                        -0.8737546724218559,
                        0.09043632205489975,
                        1.882134250026005,
                        0.8587064893532285,
                        1.1126688098382795,
                        -2.029476474031733,
                        0.7323230852804962,
                        0.6572312506988649,
                        -1.2418288909102202,
                        -1.006154422386485,
                        -0.9905744189813449,
                        0.12039459173251034,
                        0.26817927236992256,
                        1.5626484241715672,
                        -0.42022789647692826,
                        1.3430507304737533,
                        -0.03942369480200152,
                        -0.9962606226435369,
                        0.21945001718694812,
                        -1.4832812312272756,
                        -0.765536702162569,
                        0.7898146469251455,
                        0.6193945688196152,
                        1.069072554891874,
                        -0.2641539456360296,
                        1.6067018984447066,
                        2.094710282461164,
                        -0.28062201748326104,
                        1.1948964441358392,
                        0.10695596881419042,
                        -0.8613328892368364,
                        -2.6245493770181154,
                        0.3930833216669102,
                        -1.2110615269189204,
                        -0.03076247532838414,
                        -0.08189078669918387,
                        -1.0701574980555175,
                        1.381792695148288,
                        0.15558438109136363,
                        -1.4598722855818211,
                        -0.09655117814203241,
                        0.1146642791606844,
                        0.39577761356904057,
                        -0.7645297829883929,
                        -0.6883559466629938,
                        1.1811304714700521,
                        -0.9991444633354487,
                        -0.5830263389666741,
                        -0.8222142023435443,
                        1.3554053670492507,
                        1.0535144908317131,
                        1.5268007931774705,
                        -0.2355818049736467,
                        -0.876176680083887,
                        -0.7574547268476824,
                        0.4675827131295229,
                        1.8721379242553264,
                        -1.8888677187555685,
                        0.12781898301907552,
                        0.9488346453447117,
                        -2.065979226389268,
                        -1.5584113156308728,
                        0.6513840479115386,
                        0.4755477860508094,
                        1.3504862360063141,
                        0.4098413524486221,
                        1.7821118405289085,
                        -0.7947019641379495,
                        -0.04049927888360807,
                        -0.9619308751189584,
                        -0.7190627566217143,
                        -0.3148837100095978,
                        -0.21459979553345557
                    ]
                ],
                [
                    [
                        1.1363463560846274
                    ],
                    [
                        0.46055298772903186
                    ],
                    [
                        0.3566257576722247
                    ],
                    [
                        1.9554532982284196
                    ],
                    [
                        0.5411377356177193
                    ],
                    [
                        -0.7572914812118784
                    ],
                    [
                        -0.453913188520948
                    ],
                    [
                        0.9660275517715505
                    ],
                    [
                        -0.3946896948991345
                    ],
                    [
                        0.15782359281401845
                    ]
                ]
            ],
            "gradient_b": [
                [
                    [
                        0.0
                    ]
                ],
                [
                    [
                        0.0
                    ],
                    [
                        0.0
                    ],
                    [
                        0.0
                    ],
                    [
                        0.0
                    ],
                    [
                        0.0
                    ],
                    [
                        0.0
                    ],
                    [
                        0.0
                    ],
                    [
                        0.0
                    ],
                    [
                        0.0
                    ],
                    [
                        0.0
                    ]
                ]
            ],
            "gradient_w": [
                [
                    [
                        0.0,
                        0.0,
                        0.0,
                        0.0,
                        0.0,
                        0.0,
                        0.0,
                        0.0,
                        0.0,
                        0.0,
                        0.0,
                        0.0,
                        0.0,
                        0.0,
                        0.0,
                        0.0,
                        0.0,
                        0.0,
                        0.0,
                        0.0,
                        0.0,
                        0.0,
                        0.0,
                        0.0,
                        0.0,
                        0.0,
                        0.0,
                        0.0,
                        0.0,
                        0.0,
                        0.0,
                        0.0,
                        0.0,
                        0.0,
                        0.0,
                        0.0,
                        0.0,
                        0.0,
                        0.0,
                        0.0,
                        0.0,
                        0.0,
                        0.0,
                        0.0,
                        0.0,
                        0.0,
                        0.0,
                        0.0,
                        0.0,
                        0.0,
                        0.0,
                        0.0,
                        0.0,
                        0.0,
                        0.0,
                        0.0,
                        0.0,
                        0.0,
                        0.0,
                        0.0,
                        0.0,
                        0.0,
                        0.0,
                        0.0,
                        0.0,
                        0.0,
                        0.0,
                        0.0,
                        0.0,
                        0.0,
                        0.0,
                        0.0,
                        0.0,
                        0.0,
                        0.0,
                        0.0,
                        0.0,
                        0.0,
                        0.0,
                        0.0,
                        0.0,
                        0.0,
                        0.0,
                        0.0,
                        0.0,
                        0.0,
                        0.0,
                        0.0,
                        0.0,
                        0.0,
                        0.0,
                        0.0,
                        0.0,
                        0.0,
                        0.0,
                        0.0,
                        0.0,
                        0.0,
                        0.0,
                        0.0,
                        0.0,
                        0.0,
                        0.0,
                        0.0,
                        0.0,
                        0.0,
                        0.0,
                        0.0,
                        0.0,
                        0.0,
                        0.0,
                        0.0,
                        0.0,
                        0.0,
                        0.0,
                        0.0,
                        0.0,
                        0.0,
                        0.0,
                        0.0,
                        0.0,
                        0.0,
                        0.0,
                        0.0,
                        0.0,
                        0.0,
                        0.0,
                        0.0,
                        0.0,
                        0.0,
                        0.0,
                        0.0,
                        0.0,
                        0.0,
                        0.0,
                        0.0,
                        0.0,
                        0.0,
                        0.0,
                        0.0,
                        0.0,
                        0.0,
                        0.0,
                        0.0,
                        0.0,
                        0.0,
                        0.0,
                        0.0,
                        0.0,
                        0.0,
                        0.0,
                        0.0,
                        0.0,
                        0.0,
                        0.0,
                        0.0,
                        0.0,
                        0.0,
                        0.0,
                        0.0,
                        0.0,
                        0.0,
                        0.0,
                        0.0,
                        0.0,
                        0.0,
                        0.0,
                        0.0,
                        0.0,
                        0.0,
                        0.0,
                        0.0,
                        0.0,
                        0.0,
                        0.0,
                        0.0,
                        0.0,
                        0.0,
                        0.0,
                        0.0,
                        0.0,
                        0.0,
                        0.0,
                        0.0,
                        0.0,
                        0.0,
                        0.0,
                        0.0,
                        0.0,
                        0.0,
                        0.0,
                        0.0,
                        0.0,
                        0.0,
                        0.0,
                        0.0,
                        0.0,
                        0.0,
                        0.0,
                        0.0,
                        0.0,
                        0.0,
                        0.0,
                        0.0,
                        0.0,
                        0.0,
                        0.0,
                        0.0,
                        0.0,
                        0.0,
                        0.0,
                        0.0,
                        0.0,
                        0.0,
                        0.0,
                        0.0,
                        0.0,
                        0.0,
                        0.0,
                        0.0,
                        0.0,
                        0.0,
                        0.0,
                        0.0,
                        0.0,
                        0.0,
                        0.0,
                        0.0,
                        0.0,
                        0.0,
                        0.0,
                        0.0,
                        0.0,
                        0.0,
                        0.0,
                        0.0,
                        0.0,
                        0.0,
                        0.0,
                        0.0,
                        0.0,
                        0.0,
                        0.0,
                        0.0,
                        0.0,
                        0.0,
                        0.0,
                        0.0,
                        0.0,
                        0.0,
                        0.0,
                        0.0,
                        0.0,
                        0.0,
                        0.0,
                        0.0,
                        0.0,
                        0.0,
                        0.0,
                        0.0,
                        0.0,
                        0.0,
                        0.0,
                        0.0,
                        0.0,
                        0.0,
                        0.0,
                        0.0,
                        0.0,
                        0.0,
                        0.0,
                        0.0,
                        0.0,
                        0.0,
                        0.0,
                        0.0,
                        0.0,
                        0.0,
                        0.0,
                        0.0,
                        0.0,
                        0.0,
                        0.0,
                        0.0,
                        0.0,
                        0.0,
                        0.0,
                        0.0,
                        0.0,
                        0.0,
                        0.0,
                        0.0,
                        0.0,
                        0.0,
                        0.0,
                        0.0,
                        0.0,
                        0.0,
                        0.0,
                        0.0,
                        0.0,
                        0.0,
                        0.0,
                        0.0,
                        0.0,
                        0.0,
                        0.0,
                        0.0,
                        0.0,
                        0.0,
                        0.0,
                        0.0,
                        0.0,
                        0.0,
                        0.0,
                        0.0,
                        0.0,
                        0.0,
                        0.0,
                        0.0,
                        0.0,
                        0.0,
                        0.0,
                        0.0,
                        0.0,
                        0.0,
                        0.0,
                        0.0,
                        0.0,
                        0.0,
                        0.0,
                        0.0,
                        0.0,
                        0.0,
                        0.0,
                        0.0,
                        0.0,
                        0.0,
                        0.0,
                        0.0,
                        0.0,
                        0.0,
                        0.0,
                        0.0,
                        0.0,
                        0.0,
                        0.0,
                        0.0,
                        0.0,
                        0.0,
                        0.0,
                        0.0,
                        0.0,
                        0.0,
                        0.0,
                        0.0,
                        0.0,
                        0.0,
                        0.0,
                        0.0,
                        0.0,
                        0.0,
                        0.0,
                        0.0,
                        0.0,
                        0.0,
                        0.0,
                        0.0,
                        0.0,
                        0.0,
                        0.0,
                        0.0,
                        0.0,
                        0.0,
                        0.0,
                        0.0,
                        0.0,
                        0.0,
                        0.0,
                        0.0,
                        0.0,
                        0.0,
                        0.0,
                        0.0,
                        0.0,
                        0.0,
                        0.0,
                        0.0,
                        0.0,
                        0.0,
                        0.0,
                        0.0,
                        0.0,
                        0.0,
                        0.0,
                        0.0,
                        0.0,
                        0.0,
                        0.0,
                        0.0,
                        0.0,
                        0.0,
                        0.0,
                        0.0,
                        0.0,
                        0.0,
                        0.0,
                        0.0,
                        0.0,
                        0.0,
                        0.0,
                        0.0,
                        0.0,
                        0.0,
                        0.0,
                        0.0,
                        0.0,
                        0.0,
                        0.0,
                        0.0,
                        0.0,
                        0.0,
                        0.0,
                        0.0,
                        0.0,
                        0.0,
                        0.0,
                        0.0,
                        0.0,
                        0.0,
                        0.0,
                        0.0,
                        0.0,
                        0.0,
                        0.0,
                        0.0,
                        0.0,
                        0.0,
                        0.0,
                        0.0,
                        0.0,
                        0.0,
                        0.0,
                        0.0,
                        0.0,
                        0.0,
                        0.0,
                        0.0,
                        0.0,
                        0.0,
                        0.0,
                        0.0,
                        0.0,
                        0.0,
                        0.0,
                        0.0,
                        0.0,
                        0.0,
                        0.0,
                        0.0,
                        0.0,
                        0.0,
                        0.0,
                        0.0,
                        0.0,
                        0.0,
                        0.0,
                        0.0,
                        0.0,
                        0.0,
                        0.0,
                        0.0,
                        0.0,
                        0.0,
                        0.0,
                        0.0,
                        0.0,
                        0.0,
                        0.0,
                        0.0,
                        0.0,
                        0.0,
                        0.0,
                        0.0,
                        0.0,
                        0.0,
                        0.0,
                        0.0,
                        0.0,
                        0.0,
                        0.0,
                        0.0,
                        0.0,
                        0.0,
                        0.0,
                        0.0,
                        0.0,
                        0.0,
                        0.0,
                        0.0,
                        0.0,
                        0.0,
                        0.0,
                        0.0,
                        0.0,
                        0.0,
                        0.0,
                        0.0,
                        0.0,
                        0.0,
                        0.0,
                        0.0,
                        0.0,
                        0.0,
                        0.0,
                        0.0,
                        0.0,
                        0.0,
                        0.0,
                        0.0,
                        0.0,
                        0.0,
                        0.0,
                        0.0,
                        0.0,
                        0.0,
                        0.0,
                        0.0,
                        0.0,
                        0.0,
                        0.0,
                        0.0,
                        0.0,
                        0.0,
                        0.0,
                        0.0,
                        0.0,
                        0.0,
                        0.0,
                        0.0,
                        0.0,
                        0.0,
                        0.0,
                        0.0,
                        0.0,
                        0.0,
                        0.0,
                        0.0,
                        0.0,
                        0.0,
                        0.0,
                        0.0,
                        0.0,
                        0.0,
                        0.0,
                        0.0,
                        0.0,
                        0.0,
                        0.0,
                        0.0,
                        0.0,
                        0.0,
                        0.0,
                        0.0,
                        0.0,
                        0.0,
                        0.0,
                        0.0,
                        0.0,
                        0.0,
                        0.0,
                        0.0,
                        0.0,
                        0.0,
                        0.0,
                        0.0,
                        0.0,
                        0.0,
                        0.0,
                        0.0,
                        0.0,
                        0.0,
                        0.0,
                        0.0,
                        0.0,
                        0.0,
                        0.0,
                        0.0,
                        0.0,
                        0.0,
                        0.0,
                        0.0,
                        0.0,
                        0.0,
                        0.0,
                        0.0,
                        0.0,
                        0.0,
                        0.0,
                        0.0,
                        0.0,
                        0.0,
                        0.0,
                        0.0,
                        0.0,
                        0.0,
                        0.0,
                        0.0,
                        0.0,
                        0.0,
                        0.0,
                        0.0,
                        0.0,
                        0.0,
                        0.0,
                        0.0,
                        0.0,
                        0.0,
                        0.0,
                        0.0,
                        0.0,
                        0.0,
                        0.0,
                        0.0,
                        0.0,
                        0.0,
                        0.0,
                        0.0,
                        0.0,
                        0.0,
                        0.0,
                        0.0,
                        0.0,
                        0.0,
                        0.0,
                        0.0,
                        0.0,
                        0.0,
                        0.0,
                        0.0,
                        0.0,
                        0.0,
                        0.0,
                        0.0,
                        0.0,
                        0.0,
                        0.0,
                        0.0,
                        0.0,
                        0.0,
                        0.0,
                        0.0,
                        0.0,
                        0.0,
                        0.0,
                        0.0,
                        0.0,
                        0.0,
                        0.0,
                        0.0,
                        0.0,
                        0.0,
                        0.0,
                        0.0,
                        0.0,
                        0.0,
                        0.0,
                        0.0,
                        0.0,
                        0.0,
                        0.0,
                        0.0,
                        0.0,
                        0.0,
                        0.0,
                        0.0,
                        0.0,
                        0.0,
                        0.0,
                        0.0,
                        0.0,
                        0.0,
                        0.0,
                        0.0,
                        0.0,
                        0.0,
                        0.0,
                        0.0,
                        0.0,
                        0.0,
                        0.0,
                        0.0,
                        0.0,
                        0.0,
                        0.0,
                        0.0,
                        0.0,
                        0.0,
                        0.0,
                        0.0,
                        0.0,
                        0.0,
                        0.0,
                        0.0,
                        0.0,
                        0.0,
                        0.0,
                        0.0,
                        0.0,
                        0.0,
                        0.0,
                        0.0,
                        0.0,
                        0.0,
                        0.0,
                        0.0,
                        0.0,
                        0.0,
                        0.0,
                        0.0,
                        0.0,
                        0.0,
                        0.0,
                        0.0,
                        0.0,
                        0.0,
                        0.0,
                        0.0,
                        0.0,
                        0.0,
                        0.0,
                        0.0,
                        0.0,
                        0.0,
                        0.0,
                        0.0,
                        0.0,
                        0.0,
                        0.0,
                        0.0,
                        0.0,
                        0.0,
                        0.0,
                        0.0,
                        0.0,
                        0.0,
                        0.0,
                        0.0,
                        0.0,
                        0.0,
                        0.0,
                        0.0,
                        0.0,
                        0.0,
                        0.0,
                        0.0,
                        0.0,
                        0.0,
                        0.0,
                        0.0,
                        0.0,
                        0.0,
                        0.0,
                        0.0,
                        0.0,
                        0.0,
                        0.0,
                        0.0,
                        0.0,
                        0.0,
                        0.0,
                        0.0,
                        0.0,
                        0.0,
                        0.0,
                        0.0,
                        0.0,
                        0.0,
                        0.0,
                        0.0,
                        0.0,
                        0.0,
                        0.0,
                        0.0
                    ]
                ],
                [
                    [
                        0.0
                    ],
                    [
                        0.0
                    ],
                    [
                        0.0
                    ],
                    [
                        0.0
                    ],
                    [
                        0.0
                    ],
                    [
                        0.0
                    ],
                    [
                        0.0
                    ],
                    [
                        0.0
                    ],
                    [
                        0.0
                    ],
                    [
                        0.0
                    ]
                ]
            ],
            "mini_batch": [
                [
                    [
                        [
                            0.0
                        ],
                        [
                            0.0
                        ],
                        [
                            0.0
                        ],
                        [
                            0.0
                        ],
                        [
                            0.0
                        ],
                        [
                            0.0
                        ],
                        [
                            0.0
                        ],
                        [
                            0.0
                        ],
                        [
                            0.0
                        ],
                        [
                            0.0
                        ],
                        [
                            0.0
                        ],
                        [
                            0.0
                        ],
                        [
                            0.0
                        ],
                        [
                            0.0
                        ],
                        [
                            0.0
                        ],
                        [
                            0.0
                        ],
                        [
                            0.0
                        ],
                        [
                            0.0
                        ],
                        [
                            0.0
                        ],
                        [
                            0.0
                        ],
                        [
                            0.0
                        ],
                        [
                            0.0
                        ],
                        [
                            0.0
                        ],
                        [
                            0.0
                        ],
                        [
                            0.0
                        ],
                        [
                            0.0
                        ],
                        [
                            0.0
                        ],
                        [
                            0.0
                        ],
                        [
                            0.0
                        ],
                        [
                            0.0
                        ],
                        [
                            0.0
                        ],
                        [
                            0.0
                        ],
                        [
                            0.0
                        ],
                        [
                            0.0
                        ],
                        [
                            0.0
                        ],
                        [
                            0.0
                        ],
                        [
                            0.0
                        ],
                        [
                            0.0
                        ],
                        [
                            0.0
                        ],
                        [
                            0.0
                        ],
                        [
                            0.0
                        ],
                        [
                            0.0
                        ],
                        [
                            0.0
                        ],
                        [
                            0.0
                        ],
                        [
                            0.0
                        ],
                        [
                            0.0
                        ],
                        [
                            0.0
                        ],
                        [
                            0.0
                        ],
                        [
                            0.0
                        ],
                        [
                            0.0
                        ],
                        [
                            0.0
                        ],
                        [
                            0.0
                        ],
                        [
                            0.0
                        ],
                        [
                            0.0
                        ],
                        [
                            0.0
                        ],
                        [
                            0.0
                        ],
                        [
                            0.0
                        ],
                        [
                            0.0
                        ],
                        [
                            0.0
                        ],
                        [
                            0.0
                        ],
                        [
                            0.0
                        ],
                        [
                            0.0
                        ],
                        [
                            0.0
                        ],
                        [
                            0.0
                        ],
                        [
                            0.0
                        ],
                        [
                            0.0
                        ],
                        [
                            0.0
                        ],
                        [
                            0.0
                        ],
                        [
                            0.0
                        ],
                        [
                            0.0
                        ],
                        [
                            0.0
                        ],
                        [
                            0.0
                        ],
                        [
                            0.0
                        ],
                        [
                            0.0
                        ],
                        [
                            0.0
                        ],
                        [
                            0.0
                        ],
                        [
                            0.0
                        ],
                        [
                            0.0
                        ],
                        [
                            0.0
                        ],
                        [
                            0.0
                        ],
                        [
                            0.0
                        ],
                        [
                            0.0
                        ],
                        [
                            0.0
                        ],
                        [
                            0.0
                        ],
                        [
                            0.0
                        ],
                        [
                            0.0
                        ],
                        [
                            0.0
                        ],
                        [
                            0.0
                        ],
                        [
                            0.0
                        ],
                        [
                            0.0
                        ],
                        [
                            0.0
                        ],
                        [
                            0.0
                        ],
                        [
                            0.0
                        ],
                        [
                            0.0
                        ],
                        [
                            0.0
                        ],
                        [
                            0.0
                        ],
                        [
                            0.0
                        ],
                        [
                            0.0
                        ],
                        [
                            0.0
                        ],
                        [
                            0.0
                        ],
                        [
                            0.0
                        ],
                        [
                            0.0
                        ],
                        [
                            0.0
                        ],
                        [
                            0.0
                        ],
                        [
                            0.0
                        ],
                        [
                            0.0
                        ],
                        [
                            0.0
                        ],
                        [
                            0.0
                        ],
                        [
                            0.0
                        ],
                        [
                            0.0
                        ],
                        [
                            0.0
                        ],
                        [
                            0.0
                        ],
                        [
                            0.0
                        ],
                        [
                            0.0
                        ],
                        [
                            0.0
                        ],
                        [
                            0.0
                        ],
                        [
                            0.0
                        ],
                        [
                            0.0
                        ],
                        [
                            0.0
                        ],
                        [
                            0.0
                        ],
                        [
                            0.0
                        ],
                        [
                            0.0
                        ],
                        [
                            0.0
                        ],
                        [
                            0.0
                        ],
                        [
                            0.0
                        ],
                        [
                            0.0
                        ],
                        [
                            0.0
                        ],
                        [
                            0.0
                        ],
                        [
                            0.0
                        ],
                        [
                            0.0
                        ],
                        [
                            0.0
                        ],
                        [
                            0.0
                        ],
                        [
                            0.0
                        ],
                        [
                            0.0
                        ],
                        [
                            0.0
                        ],
                        [
                            0.0
                        ],
                        [
                            0.0
                        ],
                        [
                            0.0
                        ],
                        [
                            0.0
                        ],
                        [
                            0.0
                        ],
                        [
                            0.0
                        ],
                        [
                            0.0
                        ],
                        [
                            0.0
                        ],
                        [
                            0.0
                        ],
                        [
                            0.0
                        ],
                        [
                            0.0
                        ],
                        [
                            0.0
                        ],
                        [
                            0.0
                        ],
                        [
                            0.0
                        ],
                        [
                            0.0
                        ],
                        [
                            0.0
                        ],
                        [
                            0.0
                        ],
                        [
                            0.01171875
                        ],
                        [
                            0.0703125
                        ],
                        [
                            0.0703125
                        ],
                        [
                            0.0703125
                        ],
                        [
                            0.4921875
                        ],
                        [
                            0.53125
                        ],
                        [
                            0.68359375
                        ],
                        [
                            0.1015625
                        ],
                        [
                            0.6484375
                        ],
                        [
                            0.99609375
                        ],
                        [
                            0.96484375
                        ],
                        [
                            0.49609375
                        ],
                        [
                            0.0
                        ],
                        [
                            0.0
                        ],
                        [
                            0.0
                        ],
                        [
                            0.0
                        ],
                        [
                            0.0
                        ],
                        [
                            0.0
                        ],
                        [
                            0.0
                        ],
                        [
                            0.0
                        ],
                        [
                            0.0
                        ],
                        [
                            0.0
                        ],
                        [
                            0.0
                        ],
                        [
                            0.0
                        ],
                        [
                            0.1171875
                        ],
                        [
                            0.140625
                        ],
                        [
                            0.3671875
                        ],
                        [
                            0.6015625
                        ],
                        [
                            0.6640625
                        ],
                        [
                            0.98828125
                        ],
                        [
                            0.98828125
                        ],
                        [
                            0.98828125
                        ],
                        [
                            0.98828125
                        ],
                        [
                            0.98828125
                        ],
                        [
                            0.87890625
                        ],
                        [
                            0.671875
                        ],
                        [
                            0.98828125
                        ],
                        [
                            0.9453125
                        ],
                        [
                            0.76171875
                        ],
                        [
                            0.25
                        ],
                        [
                            0.0
                        ],
                        [
                            0.0
                        ],
                        [
                            0.0
                        ],
                        [
                            0.0
                        ],
                        [
                            0.0
                        ],
                        [
                            0.0
                        ],
                        [
                            0.0
                        ],
                        [
                            0.0
                        ],
                        [
                            0.0
                        ],
                        [
                            0.0
                        ],
                        [
                            0.0
                        ],
                        [
                            0.19140625
                        ],
                        [
                            0.9296875
                        ],
                        [
                            0.98828125
                        ],
                        [
                            0.98828125
                        ],
                        [
                            0.98828125
                        ],
                        [
                            0.98828125
                        ],
                        [
                            0.98828125
                        ],
                        [
                            0.98828125
                        ],
                        [
                            0.98828125
                        ],
                        [
                            0.98828125
                        ],
                        [
                            0.98046875
                        ],
                        [
                            0.36328125
                        ],
                        [
                            0.3203125
                        ],
                        [
                            0.3203125
                        ],
                        [
                            0.21875
                        ],
                        [
                            0.15234375
                        ],
                        [
                            0.0
                        ],
                        [
                            0.0
                        ],
                        [
                            0.0
                        ],
                        [
                            0.0
                        ],
                        [
                            0.0
                        ],
                        [
                            0.0
                        ],
                        [
                            0.0
                        ],
                        [
                            0.0
                        ],
                        [
                            0.0
                        ],
                        [
                            0.0
                        ],
                        [
                            0.0
                        ],
                        [
                            0.0
                        ],
                        [
                            0.0703125
                        ],
                        [
                            0.85546875
                        ],
                        [
                            0.98828125
                        ],
                        [
                            0.98828125
                        ],
                        [
                            0.98828125
                        ],
                        [
                            0.98828125
                        ],
                        [
                            0.98828125
                        ],
                        [
                            0.7734375
                        ],
                        [
                            0.7109375
                        ],
                        [
                            0.96484375
                        ],
                        [
                            0.94140625
                        ],
                        [
                            0.0
                        ],
                        [
                            0.0
                        ],
                        [
                            0.0
                        ],
                        [
                            0.0
                        ],
                        [
                            0.0
                        ],
                        [
                            0.0
                        ],
                        [
                            0.0
                        ],
                        [
                            0.0
                        ],
                        [
                            0.0
                        ],
                        [
                            0.0
                        ],
                        [
                            0.0
                        ],
                        [
                            0.0
                        ],
                        [
                            0.0
                        ],
                        [
                            0.0
                        ],
                        [
                            0.0
                        ],
                        [
                            0.0
                        ],
                        [
                            0.0
                        ],
                        [
                            0.0
                        ],
                        [
                            0.3125
                        ],
                        [
                            0.609375
                        ],
                        [
                            0.41796875
                        ],
                        [
                            0.98828125
                        ],
                        [
                            0.98828125
                        ],
                        [
                            0.80078125
                        ],
                        [
                            0.04296875
                        ],
                        [
                            0.0
                        ],
                        [
                            0.16796875
                        ],
                        [
                            0.6015625
                        ],
                        [
                            0.0
                        ],
                        [
                            0.0
                        ],
                        [
                            0.0
                        ],
                        [
                            0.0
                        ],
                        [
                            0.0
                        ],
                        [
                            0.0
                        ],
                        [
                            0.0
                        ],
                        [
                            0.0
                        ],
                        [
                            0.0
                        ],
                        [
                            0.0
                        ],
                        [
                            0.0
                        ],
                        [
                            0.0
                        ],
                        [
                            0.0
                        ],
                        [
                            0.0
                        ],
                        [
                            0.0
                        ],
                        [
                            0.0
                        ],
                        [
                            0.0
                        ],
                        [
                            0.0
                        ],
                        [
                            0.0
                        ],
                        [
                            0.0546875
                        ],
                        [
                            0.00390625
                        ],
                        [
                            0.6015625
                        ],
                        [
                            0.98828125
                        ],
                        [
                            0.3515625
                        ],
                        [
                            0.0
                        ],
                        [
                            0.0
                        ],
                        [
                            0.0
                        ],
                        [
                            0.0
                        ],
                        [
                            0.0
                        ],
                        [
                            0.0
                        ],
                        [
                            0.0
                        ],
                        [
                            0.0
                        ],
                        [
                            0.0
                        ],
                        [
                            0.0
                        ],
                        [
                            0.0
                        ],
                        [
                            0.0
                        ],
                        [
                            0.0
                        ],
                        [
                            0.0
                        ],
                        [
                            0.0
                        ],
                        [
                            0.0
                        ],
                        [
                            0.0
                        ],
                        [
                            0.0
                        ],
                        [
                            0.0
                        ],
                        [
                            0.0
                        ],
                        [
                            0.0
                        ],
                        [
                            0.0
                        ],
                        [
                            0.0
                        ],
                        [
                            0.0
                        ],
                        [
                            0.0
                        ],
                        [
                            0.54296875
                        ],
                        [
                            0.98828125
                        ],
                        [
                            0.7421875
                        ],
                        [
                            0.0078125
                        ],
                        [
                            0.0
                        ],
                        [
                            0.0
                        ],
                        [
                            0.0
                        ],
                        [
                            0.0
                        ],
                        [
                            0.0
                        ],
                        [
                            0.0
                        ],
                        [
                            0.0
                        ],
                        [
                            0.0
                        ],
                        [
                            0.0
                        ],
                        [
                            0.0
                        ],
                        [
                            0.0
                        ],
                        [
                            0.0
                        ],
                        [
                            0.0
                        ],
                        [
                            0.0
                        ],
                        [
                            0.0
                        ],
                        [
                            0.0
                        ],
                        [
                            0.0
                        ],
                        [
                            0.0
                        ],
                        [
                            0.0
                        ],
                        [
                            0.0
                        ],
                        [
                            0.0
                        ],
                        [
                            0.0
                        ],
                        [
                            0.0
                        ],
                        [
                            0.0
                        ],
                        [
                            0.04296875
                        ],
                        [
                            0.7421875
                        ],
                        [
                            0.98828125
                        ],
                        [
                            0.2734375
                        ],
                        [
                            0.0
                        ],
                        [
                            0.0
                        ],
                        [
                            0.0
                        ],
                        [
                            0.0
                        ],
                        [
                            0.0
                        ],
                        [
                            0.0
                        ],
                        [
                            0.0
                        ],
                        [
                            0.0
                        ],
                        [
                            0.0
                        ],
                        [
                            0.0
                        ],
                        [
                            0.0
                        ],
                        [
                            0.0
                        ],
                        [
                            0.0
                        ],
                        [
                            0.0
                        ],
                        [
                            0.0
                        ],
                        [
                            0.0
                        ],
                        [
                            0.0
                        ],
                        [
                            0.0
                        ],
                        [
                            0.0
                        ],
                        [
                            0.0
                        ],
                        [
                            0.0
                        ],
                        [
                            0.0
                        ],
                        [
                            0.0
                        ],
                        [
                            0.0
                        ],
                        [
                            0.0
                        ],
                        [
                            0.13671875
                        ],
                        [
                            0.94140625
                        ],
                        [
                            0.87890625
                        ],
                        [
                            0.625
                        ],
                        [
                            0.421875
                        ],
                        [
                            0.00390625
                        ],
                        [
                            0.0
                        ],
                        [
                            0.0
                        ],
                        [
                            0.0
                        ],
                        [
                            0.0
                        ],
                        [
                            0.0
                        ],
                        [
                            0.0
                        ],
                        [
                            0.0
                        ],
                        [
                            0.0
                        ],
                        [
                            0.0
                        ],
                        [
                            0.0
                        ],
                        [
                            0.0
                        ],
                        [
                            0.0
                        ],
                        [
                            0.0
                        ],
                        [
                            0.0
                        ],
                        [
                            0.0
                        ],
                        [
                            0.0
                        ],
                        [
                            0.0
                        ],
                        [
                            0.0
                        ],
                        [
                            0.0
                        ],
                        [
                            0.0
                        ],
                        [
                            0.0
                        ],
                        [
                            0.0
                        ],
                        [
                            0.0
                        ],
                        [
                            0.31640625
                        ],
                        [
                            0.9375
                        ],
                        [
                            0.98828125
                        ],
                        [
                            0.98828125
                        ],
                        [
                            0.46484375
                        ],
                        [
                            0.09765625
                        ],
                        [
                            0.0
                        ],
                        [
                            0.0
                        ],
                        [
                            0.0
                        ],
                        [
                            0.0
                        ],
                        [
                            0.0
                        ],
                        [
                            0.0
                        ],
                        [
                            0.0
                        ],
                        [
                            0.0
                        ],
                        [
                            0.0
                        ],
                        [
                            0.0
                        ],
                        [
                            0.0
                        ],
                        [
                            0.0
                        ],
                        [
                            0.0
                        ],
                        [
                            0.0
                        ],
                        [
                            0.0
                        ],
                        [
                            0.0
                        ],
                        [
                            0.0
                        ],
                        [
                            0.0
                        ],
                        [
                            0.0
                        ],
                        [
                            0.0
                        ],
                        [
                            0.0
                        ],
                        [
                            0.0
                        ],
                        [
                            0.0
                        ],
                        [
                            0.17578125
                        ],
                        [
                            0.7265625
                        ],
                        [
                            0.98828125
                        ],
                        [
                            0.98828125
                        ],
                        [
                            0.5859375
                        ],
                        [
                            0.10546875
                        ],
                        [
                            0.0
                        ],
                        [
                            0.0
                        ],
                        [
